digraph Tree {
node [shape=box, style="filled, rounded", color="black", fontname=helvetica] ;
edge [fontname=helvetica] ;
0 [label="petal width (cm) <= 0.75\ngini = 0.66\nsamples = 94\nvalue = [58, 47, 45]\nclass = setosa", fillcolor="#fcf2ea"] ;
1 [label="gini = 0.0\nsamples = 33\nvalue = [58, 0, 0]\nclass = setosa", fillcolor="#e58139"] ;
0 -> 1 [labeldistance=2.5, labelangle=45, headlabel="True"] ;
2 [label="petal width (cm) <= 1.75\ngini = 0.5\nsamples = 61\nvalue = [0, 47, 45]\nclass = versicolor", fillcolor="#f7fefa"] ;
0 -> 2 [labeldistance=2.5, labelangle=-45, headlabel="False"] ;
3 [label="sepal length (cm) <= 7.1\ngini = 0.15\nsamples = 34\nvalue = [0, 45, 4]\nclass = versicolor", fillcolor="#4be78c"] ;
2 -> 3 ;
4 [label="sepal length (cm) <= 4.95\ngini = 0.12\nsamples = 33\nvalue = [0, 45, 3]\nclass = versicolor", fillcolor="#46e789"] ;
3 -> 4 ;
5 [label="petal length (cm) <= 3.9\ngini = 0.5\nsamples = 2\nvalue = [0, 1, 1]\nclass = versicolor", fillcolor="#ffffff"] ;
4 -> 5 ;
6 [label="gini = 0.0\nsamples = 1\nvalue = [0, 1, 0]\nclass = versicolor", fillcolor="#39e581"] ;
5 -> 6 ;
7 [label="gini = 0.0\nsamples = 1\nvalue = [0, 0, 1]\nclass = virginica", fillcolor="#8139e5"] ;
5 -> 7 ;
8 [label="sepal width (cm) <= 2.25\ngini = 0.08\nsamples = 31\nvalue = [0, 44, 2]\nclass = versicolor", fillcolor="#42e687"] ;
4 -> 8 ;
9 [label="petal width (cm) <= 1.25\ngini = 0.44\nsamples = 2\nvalue = [0, 2, 1]\nclass = versicolor", fillcolor="#9cf2c0"] ;
8 -> 9 ;
10 [label="gini = 0.0\nsamples = 1\nvalue = [0, 2, 0]\nclass = versicolor", fillcolor="#39e581"] ;
9 -> 10 ;
11 [label="gini = 0.0\nsamples = 1\nvalue = [0, 0, 1]\nclass = virginica", fillcolor="#8139e5"] ;
9 -> 11 ;
12 [label="petal length (cm) <= 5.05\ngini = 0.05\nsamples = 29\nvalue = [0, 42, 1]\nclass = versicolor", fillcolor="#3ee684"] ;
8 -> 12 ;
13 [label="gini = 0.0\nsamples = 27\nvalue = [0, 41, 0]\nclass = versicolor", fillcolor="#39e581"] ;
12 -> 13 ;
14 [label="petal width (cm) <= 1.55\ngini = 0.5\nsamples = 2\nvalue = [0, 1, 1]\nclass = versicolor", fillcolor="#ffffff"] ;
12 -> 14 ;
15 [label="gini = 0.0\nsamples = 1\nvalue = [0, 0, 1]\nclass = virginica", fillcolor="#8139e5"] ;
14 -> 15 ;
16 [label="gini = 0.0\nsamples = 1\nvalue = [0, 1, 0]\nclass = versicolor", fillcolor="#39e581"] ;
14 -> 16 ;
17 [label="gini = 0.0\nsamples = 1\nvalue = [0, 0, 1]\nclass = virginica", fillcolor="#8139e5"] ;
3 -> 17 ;
18 [label="sepal length (cm) <= 5.95\ngini = 0.09\nsamples = 27\nvalue = [0, 2, 41]\nclass = virginica", fillcolor="#8743e6"] ;
2 -> 18 ;
19 [label="petal length (cm) <= 4.95\ngini = 0.44\nsamples = 2\nvalue = [0, 2, 1]\nclass = versicolor", fillcolor="#9cf2c0"] ;
18 -> 19 ;
20 [label="gini = 0.0\nsamples = 1\nvalue = [0, 2, 0]\nclass = versicolor", fillcolor="#39e581"] ;
19 -> 20 ;
21 [label="gini = 0.0\nsamples = 1\nvalue = [0, 0, 1]\nclass = virginica", fillcolor="#8139e5"] ;
19 -> 21 ;
22 [label="gini = 0.0\nsamples = 25\nvalue = [0, 0, 40]\nclass = virginica", fillcolor="#8139e5"] ;
18 -> 22 ;
}